digraph Tree {
node [shape=box, style="filled, rounded", color="black", fontname=helvetica] ;
edge [fontname=helvetica] ;
0 [label=<age &le; 60.5<br/>gini = 0.2066<br/>samples = 35211<br/>value = [31092, 4119]<br/>class = no>, fillcolor="#e58139dd"] ;
1 [label=<balance &le; 93.5<br/>gini = 0.1929<br/>samples = 34253<br/>value = [30548, 3705]<br/>class = no>, fillcolor="#e58139e0"] ;
0 -> 1 [labeldistance=2.5, labelangle=45, headlabel="True"] ;
2 [label=<age &le; 29.5<br/>gini = 0.1274<br/>samples = 9393<br/>value = [8751, 642]<br/>class = no>, fillcolor="#e58139ec"] ;
1 -> 2 ;
3 [label=<balance &le; -204.0<br/>gini = 0.1784<br/>samples = 1182<br/>value = [1065, 117]<br/>class = no>, fillcolor="#e58139e3"] ;
2 -> 3 ;
4 [label=<gini = 0.1035<br/>samples = 201<br/>value = [190, 11]<br/>class = no>, fillcolor="#e58139f0"] ;
3 -> 4 ;
5 [label=<gini = 0.1928<br/>samples = 981<br/>value = [875, 106]<br/>class = no>, fillcolor="#e58139e0"] ;
3 -> 5 ;
6 [label=<campaign &le; 1.5<br/>gini = 0.1197<br/>samples = 8211<br/>value = [7686, 525]<br/>class = no>, fillcolor="#e58139ee"] ;
2 -> 6 ;
7 [label=<gini = 0.1468<br/>samples = 2959<br/>value = [2723, 236]<br/>class = no>, fillcolor="#e58139e9"] ;
6 -> 7 ;
8 [label=<gini = 0.104<br/>samples = 5252<br/>value = [4963, 289]<br/>class = no>, fillcolor="#e58139f0"] ;
6 -> 8 ;
9 [label=<age &le; 29.5<br/>gini = 0.2161<br/>samples = 24860<br/>value = [21797, 3063]<br/>class = no>, fillcolor="#e58139db"] ;
1 -> 9 ;
10 [label=<age &le; 25.5<br/>gini = 0.3249<br/>samples = 2949<br/>value = [2347, 602]<br/>class = no>, fillcolor="#e58139be"] ;
9 -> 10 ;
11 [label=<gini = 0.4028<br/>samples = 744<br/>value = [536, 208]<br/>class = no>, fillcolor="#e581399c"] ;
10 -> 11 ;
12 [label=<gini = 0.2935<br/>samples = 2205<br/>value = [1811, 394]<br/>class = no>, fillcolor="#e58139c8"] ;
10 -> 12 ;
13 [label=<campaign &le; 1.5<br/>gini = 0.1994<br/>samples = 21911<br/>value = [19450, 2461]<br/>class = no>, fillcolor="#e58139df"] ;
9 -> 13 ;
14 [label=<gini = 0.2411<br/>samples = 8360<br/>value = [7188, 1172]<br/>class = no>, fillcolor="#e58139d5"] ;
13 -> 14 ;
15 [label=<gini = 0.1721<br/>samples = 13551<br/>value = [12262, 1289]<br/>class = no>, fillcolor="#e58139e4"] ;
13 -> 15 ;
16 [label=<campaign &le; 3.5<br/>gini = 0.4908<br/>samples = 958<br/>value = [544, 414]<br/>class = no>, fillcolor="#e581393d"] ;
0 -> 16 [labeldistance=2.5, labelangle=-45, headlabel="False"] ;
17 [label=<age &le; 83.5<br/>gini = 0.4948<br/>samples = 842<br/>value = [464, 378]<br/>class = no>, fillcolor="#e581392f"] ;
16 -> 17 ;
18 [label=<balance &le; 4818.0<br/>gini = 0.4927<br/>samples = 812<br/>value = [455, 357]<br/>class = no>, fillcolor="#e5813937"] ;
17 -> 18 ;
19 [label=<gini = 0.4963<br/>samples = 698<br/>value = [379, 319]<br/>class = no>, fillcolor="#e5813928"] ;
18 -> 19 ;
20 [label=<gini = 0.4444<br/>samples = 114<br/>value = [76, 38]<br/>class = no>, fillcolor="#e581397f"] ;
18 -> 20 ;
21 [label=<age &le; 93.5<br/>gini = 0.42<br/>samples = 30<br/>value = [9, 21]<br/>class = yes>, fillcolor="#399de592"] ;
17 -> 21 ;
22 [label=<gini = 0.375<br/>samples = 28<br/>value = [7, 21]<br/>class = yes>, fillcolor="#399de5aa"] ;
21 -> 22 ;
23 [label=<gini = 0.0<br/>samples = 2<br/>value = [2, 0]<br/>class = no>, fillcolor="#e58139ff"] ;
21 -> 23 ;
24 [label=<balance &le; 743.0<br/>gini = 0.4281<br/>samples = 116<br/>value = [80, 36]<br/>class = no>, fillcolor="#e581398c"] ;
16 -> 24 ;
25 [label=<campaign &le; 5.5<br/>gini = 0.2449<br/>samples = 35<br/>value = [30, 5]<br/>class = no>, fillcolor="#e58139d4"] ;
24 -> 25 ;
26 [label=<gini = 0.32<br/>samples = 25<br/>value = [20, 5]<br/>class = no>, fillcolor="#e58139bf"] ;
25 -> 26 ;
27 [label=<gini = 0.0<br/>samples = 10<br/>value = [10, 0]<br/>class = no>, fillcolor="#e58139ff"] ;
25 -> 27 ;
28 [label=<age &le; 62.5<br/>gini = 0.4725<br/>samples = 81<br/>value = [50, 31]<br/>class = no>, fillcolor="#e5813961"] ;
24 -> 28 ;
29 [label=<gini = 0.2604<br/>samples = 13<br/>value = [11, 2]<br/>class = no>, fillcolor="#e58139d1"] ;
28 -> 29 ;
30 [label=<gini = 0.4892<br/>samples = 68<br/>value = [39, 29]<br/>class = no>, fillcolor="#e5813941"] ;
28 -> 30 ;
}